[[ 0.17533874 -0.11073224 -0.05974756 -0.07636811 -0.43293134  0.0530043
   0.01081581  0.28841257]
 [ 0.21527098 -0.18254438 -0.37245537  0.30308999 -0.33569001 -0.16505628
   0.1700006  -0.14051732]
 [ 0.26628473  0.40062648  0.44440452  0.07521323  0.13473023 -0.33905086
   0.19528043  0.28213872]
 [-0.0234013   0.27292631  0.46016214  0.16562793 -0.30976592  0.2313444
   0.21544684  0.05914299]
 [-0.25775135 -0.20019494 -0.16204523 -0.33550081 -0.03116659 -0.01783913
   0.05379541  0.35699811]
 [ 0.19393628  0.23608946 -0.07938686 -0.51046829 -0.05949039  0.01979164
  -0.2930068   0.06456906]
 [ 0.04027823  0.15807421 -0.2467215  -0.14618312 -0.01196938 -0.42749261
   0.41319428 -0.46437112]
 [ 0.51177484 -0.45973846  0.03315512 -0.20660551  0.2690205  -0.55378558
   0.64848633  0.03523883]
 [ 0.22273786  0.01888413  0.32474314 -0.10117673 -0.35998328  0.18296255
  -0.0380595   0.5353593 ]
 [ 0.01598359 -0.29033262  0.49121269  0.65774222 -0.11324923  0.04525816
   0.02771102 -0.52749822]
 [ 0.30434667  0.51864096  0.12867758 -0.11278228  0.23310256  0.55093309
   0.28316223  0.42583677]
 [-0.41776168  0.04268536 -0.09205696 -0.22402072 -0.23141648 -0.25486405
  -0.13988541  0.14422978]
 [-0.28211183  0.06459352  0.28097833 -0.31844748  0.01528368  0.37603709
  -0.42671678  0.18419563]
 [-0.06198835 -0.28108043 -0.12372025  0.18598946  0.23499918  0.10037296
  -0.26097603 -0.04892521]
 [-0.19568157  0.23113647 -0.04290354  0.222425   -0.32057883  0.27568179
   0.34286436 -0.10264707]
 [ 0.42632104  0.01548458 -0.05910946 -0.13357999  0.42691526  0.19711955
   0.40856018 -0.05005961]
 [ 0.29107038 -0.16912034 -0.27719723 -0.17894891 -0.09710032 -0.00862677
   0.38463669 -0.19326918]
 [-0.18280625  0.10543259  0.29762748 -0.24966227  0.3381175   0.34131147
  -0.1606903  -0.37265839]
 [-0.01493778  0.16275868 -0.27762837 -0.04755847 -0.07038467  0.15353204
  -0.08291246  0.24624862]
 [ 0.26290761 -0.15603666  0.21270083 -0.31585263  0.29065161 -0.23092505
   0.22439883 -0.0980989 ]
 [ 0.00883754  0.07252619  0.07704896  0.34139131  0.39626034 -0.30261748
   0.34731288  0.19856549]]
[[ 0.58123653 -0.42353709  0.17896214]
 [-0.59810159  0.42052646 -0.17510321]
 [ 0.15625162 -0.06914184  0.43061637]
 [ 0.11683139 -0.88352618  0.52939604]
 [ 0.23016952  0.14278256 -0.12294398]
 [-0.36177035  0.58840402 -0.23025695]
 [ 0.54172529 -0.29372681  0.45848795]
 [-0.39595578 -0.21945279 -0.72524737]]
[[-0.81910656]
 [ 0.95193958]
 [-1.26589788]]
