[[ 0.11702927 -0.23701786  0.47062943 -0.17655704  0.11571061  0.05659028
   0.16491153  0.29731721]
 [ 0.48652179  0.00381994  0.47627989  0.00766193 -0.01059334  0.31907035
   0.2595868   0.27216942]
 [ 0.06245839  0.30750021 -0.35955155  0.2577752   0.41335376 -0.22950959
  -0.255213   -0.02508465]
 [ 0.20593586  0.12367936 -0.41620954 -0.12712809  0.40895881 -0.13598569
  -0.05379834 -0.40116969]
 [ 0.30059582  0.19625609  0.21772708 -0.29113555  0.29402105 -0.31315315
  -0.24821989 -0.36392842]
 [ 0.14799375 -0.30270744  0.28833163 -0.09504136 -0.46696174 -0.17008677
   0.05992381  0.16681812]
 [ 0.09493659  0.30321761 -0.25927562  0.19033684 -0.19821089  0.46686845
   0.22970522 -0.33140474]
 [ 0.40281064  0.14976905 -0.12473987  0.3153541  -0.0645686  -0.26619417
   0.13720904 -0.36758645]
 [-0.27333264  0.24496887 -0.15957279 -0.09403593 -0.37370449 -0.46700178
   0.42773763 -0.28874434]
 [ 0.24627749 -0.10405145  0.49042699  0.52881817 -0.13148519  0.13817617
  -0.49896493 -0.23675063]
 [-0.33162505  0.33480844 -0.38605352 -0.33568224 -0.20702341  0.32757908
   0.29758046 -0.00455942]
 [-0.22774833  0.34767052  0.03950633  0.25565192  0.17121386 -0.29080499
   0.06912884  0.36100206]
 [ 0.25769404 -0.01519933 -0.01390091  0.23195795  0.16980455 -0.4203441
   0.18209155  0.24312734]
 [ 0.46791674  0.35670646  0.17811004  0.34214445 -0.43547437 -0.01151594
  -0.45021591 -0.44281271]
 [ 0.24891292  0.22204739  0.1378384  -0.25624822 -0.34269948 -0.07755816
   0.12395355 -0.27861168]
 [ 0.35301015 -0.00819756  0.20956514 -0.13488999 -0.24234001 -0.05833518
  -0.2755378   0.12449349]
 [ 0.42384309  0.29389808  0.16334764  0.17719486 -0.37077389  0.2414313
  -0.06092798  0.08590626]
 [ 0.40304629 -0.28631716  0.05106645  0.23265273 -0.37221537  0.16906215
  -0.35431815  0.21636761]
 [ 0.30926217 -0.45004694  0.16030382 -0.16072138  0.39535201 -0.3810868
   0.49648274  0.4646322 ]
 [-0.26934556  0.37218186 -0.37811962  0.17727269 -0.43394411 -0.05475836
  -0.01215592  0.00371724]
 [-0.14901405  0.1721591  -0.23971063  0.05148523  0.1394549  -0.03975014
  -0.51275978  0.12640443]]
[[-0.70033133]
 [-0.44328051]
 [-0.34943196]
 [-0.76646139]
 [-0.12759206]
 [-0.72239936]
 [ 0.87313183]
 [ 0.51721846]]
